var pModel = {
  "scoring": {
    "size": [
      20, 
      22
    ], 
    "bias": -0.5563811100418266, 
    "coef": [
      0.019733052441866062, 
      0.01674430061592447, 
      0.015625958507602865, 
      0.01466794003910949, 
      0.014538048304299538, 
      0.011965802326695465, 
      0.010101444207466243, 
      0.007565930345858518, 
      0.010160427172257338, 
      0.01145925158735461, 
      0.01136158126585558, 
      0.008921877312593663, 
      0.009048913495446821, 
      0.016243162802631432, 
      0.019582830435270746, 
      0.018484423713529662, 
      0.018196027140985255, 
      0.02084435765467839, 
      0.022314188094724578, 
      0.028541235996181677, 
      0.02084190749424568, 
      0.0185151570456965, 
      0.012661626281358265, 
      0.013028685858770817, 
      0.011842190959992374, 
      0.00945780607034816, 
      0.0077575214507588156, 
      0.005019128423564393, 
      0.004837574760540185, 
      0.005871694933494736, 
      0.004976764914516289, 
      0.005572852404799545, 
      0.009841506807362498, 
      0.012551600151034075, 
      0.015039782702183663, 
      0.015303141239378032, 
      0.015128764405362843, 
      0.016732255475321905, 
      0.014985569851668705, 
      0.02398286554198315, 
      0.021764678414496398, 
      0.016551449926802433, 
      0.01078855023856771, 
      0.011617251968175457, 
      0.011580639302421186, 
      0.009754676944810942, 
      0.010516602835257257, 
      0.00897849641041764, 
      0.006060907886493877, 
      0.006952631889045804, 
      0.007325409402230417, 
      0.009096482855569911, 
      0.01008151671515469, 
      0.008983491581384312, 
      0.009264464050954397, 
      0.011971076556690998, 
      0.009445263402466519, 
      0.009472215942943491, 
      0.007162504426046612, 
      0.013789125711143355, 
      0.019353106469945175, 
      0.012448752390377491, 
      0.01015957523568876, 
      0.011041072842268011, 
      0.010689437304231485, 
      0.009441808113439022, 
      0.011482692654549344, 
      0.008783415961128836, 
      0.00618454115438864, 
      0.004879519254727713, 
      0.004175171398095668, 
      0.00615792467059083, 
      0.006293852688950106, 
      0.004692196616409875, 
      0.0035836139901163867, 
      0.0028505533593482647, 
      -0.0003746135477520671, 
      -0.003971344018923086, 
      -0.004833230972803088, 
      0.0004991054689260807, 
      0.010100659839931686, 
      0.0029901412276904715, 
      0.0012409222204226955, 
      0.0031958557086241937, 
      0.0037855413570615833, 
      0.005266576125837652, 
      0.006528074618278583, 
      0.0048240939941782066, 
      0.0027583474075400217, 
      0.003578699445954299, 
      0.0025940917943020588, 
      0.0007440969679590128, 
      8.33311720734808e-05, 
      0.0004910817223171083, 
      -0.002129736273900452, 
      -0.0071547686735591205, 
      -0.012718004462134743, 
      -0.018346304669501035, 
      -0.01827420745001974, 
      -0.015823218278743462, 
      -0.0059827960087779734, 
      -0.012595928040092002, 
      -0.011598772006866626, 
      -0.007917236018383138, 
      -0.006194594529663135, 
      -0.0021960459680879073, 
      -0.0015730587414385863, 
      -0.00317220117094469, 
      -0.006470192026240851, 
      -0.00643009376004017, 
      -0.008156500480822565, 
      -0.009782337339163984, 
      -0.0058344284571814325, 
      -0.005178843749743205, 
      -0.010480198237405198, 
      -0.016928672097148472, 
      -0.019414239558961075, 
      -0.01985306813210837, 
      -0.02321057597298707, 
      -0.02743740511883744, 
      -0.023300498365287924, 
      -0.027484586342010668, 
      -0.02349189005556923, 
      -0.018608729951481995, 
      -0.015952978934427216, 
      -0.011291984268946018, 
      -0.00789435253205125, 
      -0.005256234177587638, 
      -0.009759293077267254, 
      -0.010996677761224417, 
      -0.01149277494763335, 
      -0.009472450443296629, 
      -0.0031296222053666836, 
      -0.004130207203208971, 
      -0.00918496005678352, 
      -0.011137252160992633, 
      -0.010597573148268476, 
      -0.007111231855599689, 
      -0.014022513758596117, 
      -0.02357194813403366, 
      -0.02555412830213396, 
      -0.021863120397313685, 
      -0.015816903110766604, 
      -0.013120338494672439, 
      -0.010937721336455538, 
      -0.010985823406378842, 
      -0.0012233323616514316, 
      0.004044310988917689, 
      0.00032032945963697177, 
      -0.005212410871657921, 
      -0.005065599041548568, 
      0.0017261817420503097, 
      0.008542620684389358, 
      0.005898427770574578, 
      -0.003651247656926545, 
      -0.0031365949006118836, 
      -0.0015663091792907317, 
      -0.0007084579022067213, 
      -0.006754063384016236, 
      -0.016662452819134966, 
      -0.017204929114478868, 
      -0.009779278030821787, 
      -0.005492255648882356, 
      -0.0059394466570931725, 
      -0.004331698567231373, 
      -0.005641167187278765, 
      0.005635672098526841, 
      0.012808566457880102, 
      0.009637804334811168, 
      0.0003065420613405584, 
      0.00029467147939405005, 
      0.007870234511683456, 
      0.011833117201707079, 
      0.008398333628338762, 
      -0.0012787985640020138, 
      -0.003727893300794806, 
      0.0007918717653572606, 
      -3.499001936843559e-05, 
      -0.008235962124455778, 
      -0.017965387646088266, 
      -0.014531136889428867, 
      -0.008917565492678336, 
      -0.004102945908725982, 
      -0.0006926067579137303, 
      -0.006173455902383942, 
      -0.006861962871706714, 
      0.0038183833504941, 
      0.010580710413119088, 
      0.005573519345898803, 
      -0.0018227980056130396, 
      -0.0013866398113309484, 
      0.00406234412648861, 
      0.00697732966732286, 
      0.004959068001916197, 
      -0.0036830469284648876, 
      -0.008412011919955241, 
      -0.00213786698428654, 
      -0.005104520716007697, 
      -0.021349045181291975, 
      -0.0374754216133248, 
      -0.018748848630546818, 
      -0.014706536498337919, 
      -0.004083393399591135, 
      0.0015306610796775976, 
      -0.007150949963114731, 
      -0.006696908088241422, 
      0.004378055904854464, 
      0.011985735386833736, 
      0.008830179518797316, 
      0.003622211130322998, 
      0.004549355439724122, 
      0.011865104218877579, 
      0.017083224818356724, 
      0.009762381216910787, 
      -0.0025113538218561183, 
      -0.011024646634537344, 
      -0.010958770455307635, 
      -0.015874469486539214, 
      -0.03178904809925305, 
      -0.04886184560035108, 
      -0.045543194148738655, 
      -0.03275022576675935, 
      -0.017487884977770707, 
      -0.007161994068552033, 
      -0.009475099620031303, 
      -0.0044618924721728705, 
      0.0075213529767801926, 
      0.01786701916464531, 
      0.010580425455640903, 
      -0.001051240145987883, 
      -0.0025465013305146383, 
      0.003972942303734316, 
      0.011388134170117512, 
      0.005912804042687494, 
      -0.00507839677586258, 
      -0.010053145780448034, 
      -0.006833308635593065, 
      -0.007163847575720699, 
      -0.018762383878491586, 
      -0.03347011757604468, 
      -0.04841061309316826, 
      -0.03247536648762128, 
      -0.017441310160464595, 
      -0.007106788928510007, 
      -0.00882909547570889, 
      -0.006649816578284949, 
      -0.0008619730761474819, 
      0.0033488052608936984, 
      -0.002251587632396369, 
      -0.01445089634263065, 
      -0.015198397315490775, 
      -0.008268126171158845, 
      0.0020212639913235147, 
      0.005314576365216785, 
      0.0041766979241582135, 
      0.0023628321773989137, 
      0.0028176189581620497, 
      0.002480895795400636, 
      -0.006559439287658116, 
      -0.022088008489367282, 
      -0.029277685177485323, 
      -0.013921715381951163, 
      -0.00368343328183868, 
      0.005626031246388996, 
      0.004903656275626132, 
      0.004814799609148924, 
      0.007142859503229022, 
      0.0028601654649416178, 
      -0.0005423303059078049, 
      -0.006738825725800168, 
      -0.007435358092927756, 
      -0.002171462182767231, 
      0.005699964220191455, 
      0.013883140584638395, 
      0.010172422005099713, 
      0.0013454576731274364, 
      0.0024859568552897727, 
      -0.00034082211984796777, 
      -0.012007265666645976, 
      -0.020449005893889347, 
      -0.023630731084785295, 
      -0.011722549066211523, 
      0.0004907925271071013, 
      0.006519178977787683, 
      0.0031465307665874895, 
      0.0066769015760459105, 
      0.016299078446431074, 
      0.014267469164629686, 
      0.008945180085909133, 
      0.00624530524594696, 
      0.0064178804853474184, 
      0.009298822894532936, 
      0.016514674913187363, 
      0.017281294671160907, 
      0.005090953317267213, 
      -0.009593236412555637, 
      -0.006806904292956601, 
      -0.00869938410372781, 
      -0.017848256743715277, 
      -0.019932538909348516, 
      -0.022599961637919157, 
      -0.019787458395030173, 
      -0.011169430176293238, 
      -0.0024065790308233645, 
      -0.00603880637154034, 
      -0.004043206825034273, 
      0.011883785526138212, 
      0.017121802948493095, 
      0.010874954029594805, 
      0.0029076210171799016, 
      0.00023225473718071376, 
      0.0023948211736266145, 
      0.009759882420767974, 
      0.013662740464958975, 
      0.0006950148385958995, 
      -0.015520999686025577, 
      -0.011528979776741095, 
      -0.005931296857856471, 
      -0.00890005219434668, 
      -0.013215652542965391, 
      -0.01778284533962895, 
      -0.01574678988549549, 
      -0.010183123654707592, 
      -0.0024877873711077986, 
      -0.012002680806047878, 
      -0.009299749999196224, 
      0.0068405560037580445, 
      0.012036073017309905, 
      0.004000193817026741, 
      -0.004121344891744673, 
      -0.007423191220965446, 
      -0.002479521738365293, 
      0.0099661271336931, 
      0.01669318449384333, 
      0.0066007427209510226, 
      -0.005495496991824943, 
      -0.005760142611571031, 
      -0.0005405435196044271, 
      -0.008905896870223648, 
      -0.014066315965803038, 
      -0.012026151542287495, 
      -0.008830790747209018, 
      0.0010674821315769956, 
      2.7550064921680688e-05, 
      -0.010435236244701126, 
      -0.007438230582238015, 
      0.006557695431307845, 
      0.013590491209277232, 
      0.010274014038693822, 
      0.004957547931323831, 
      -0.001047496892439557, 
      0.003037244778052943, 
      0.010773571358775798, 
      0.012235549103550061, 
      0.004440338971395726, 
      -0.0007086986994637088, 
      0.0010272602373001159, 
      0.003588237260404594, 
      -0.004660313073277349, 
      -0.00487590669294149, 
      -0.005532031635169919, 
      -0.011610529528839902, 
      -0.0017837920347533842, 
      0.004240732297019496, 
      -0.002488629849386, 
      -0.005691499313499262, 
      -0.0006797006620799121, 
      0.007935569214618106, 
      0.011392287395140055, 
      0.007746778145720369, 
      0.0074365410295036865, 
      0.004602908780106528, 
      0.006733515349746285, 
      0.005043152250373861, 
      -0.0013805863417957656, 
      -0.0014597269468423818, 
      0.003340646689590703, 
      0.00554168105719879, 
      0.0034892794326312347, 
      0.0006410769973814541, 
      9.075911027260806e-05, 
      -0.006148841260281337, 
      0.0006144252366197269, 
      0.0043224009487029666, 
      -0.0003224102806620529, 
      -0.002463225216820649, 
      0.0009936680441792382, 
      0.00813488938367184, 
      0.00988621058359958, 
      0.008838724164068798, 
      0.009908716412238798, 
      0.004525855834240443, 
      0.003264709447914757, 
      0.0004348171970732106, 
      -0.00018338088006534365, 
      0.001778699135279736, 
      0.0064903818065287985, 
      0.007826358464701944, 
      0.005261145692879104, 
      0.003157228504664593, 
      0.001546234122855528, 
      7.08156360126239e-05, 
      0.006301083150129, 
      0.007717619363946412, 
      0.0019056211370700135, 
      0.0018481023541182457, 
      0.004816312676488855, 
      0.007690369318813498, 
      0.008354136792200192, 
      0.010759800534874872, 
      0.009787715965556406, 
      0.007836837207288417, 
      0.002022625335454269, 
      0.0009489403047416175, 
      0.002852089871717666, 
      0.00723084431444093, 
      0.009447906198523412, 
      0.010522054167160276, 
      0.00837275565593486, 
      0.003335661241688199, 
      0.0013137102966562252, 
      0.0024283761428776306, 
      0.0113404749596281, 
      0.013043340539012179, 
      0.008705734263328697, 
      0.007930521513072919, 
      0.009402123285367497, 
      0.009709789517345288, 
      0.009941732443149434, 
      0.010324034612084988, 
      0.010005435378641995, 
      0.006659082914823979, 
      0.005721402309892251, 
      0.006063425501539563, 
      0.0060792656065470395, 
      0.010038703375598488, 
      0.010585629460753542, 
      0.009620361007467132, 
      0.002875260919159267, 
      -0.00845543857789485
    ]
  }, 
  "path": {
    "vertices": [
      [
        0, 
        1, 
        17, 
        0
      ], 
      [
        1, 
        2, 
        17, 
        1
      ], 
      [
        2, 
        3, 
        17, 
        2
      ], 
      [
        3, 
        17, 
        16, 
        3
      ], 
      [
        3, 
        15, 
        16, 
        3
      ], 
      [
        3, 
        4, 
        15, 
        3
      ], 
      [
        4, 
        5, 
        15, 
        4
      ], 
      [
        5, 
        6, 
        15, 
        5
      ], 
      [
        6, 
        7, 
        14, 
        6
      ], 
      [
        7, 
        8, 
        14, 
        7
      ], 
      [
        8, 
        13, 
        14, 
        8
      ], 
      [
        8, 
        9, 
        13, 
        8
      ], 
      [
        9, 
        10, 
        13, 
        9
      ], 
      [
        10, 
        12, 
        13, 
        10
      ], 
      [
        10, 
        11, 
        12, 
        10
      ], 
      [
        0, 
        11, 
        12, 
        0
      ]
    ], 
    "normal": [
      [
        0, 
        1, 
        2, 
        3, 
        4, 
        5, 
        6, 
        7, 
        8, 
        9, 
        10, 
        11, 
        0, 
        12, 
        13, 
        14, 
        6, 
        15, 
        16, 
        17, 
        0
      ]
    ]
  }, 
  "patchModel": {
    "patchType": "SVM", 
    "bias": {
      "raw": [
        -1.2894237569475917, 
        -0.91654881871487692, 
        -0.75334544139466175, 
        -0.7594522919486989, 
        -0.76832601158340164, 
        -0.94271289847347528, 
        -1.291180866331078, 
        -0.79999314583144265, 
        -0.80001205738882786, 
        -0.80007485601785133, 
        -0.8002126836506348, 
        -0.80019001955044655, 
        -0.60041780704893677, 
        -0.6003587184034519, 
        -0.60035979525184902, 
        -0.60032470853971809, 
        -0.78402511257564678, 
        -0.60056960091318023
      ], 
      "sobel": [
        -0.60293057929465754, 
        -0.65303794414508354, 
        -0.63369653882526933, 
        -0.60029577945878199, 
        -0.64818116288910843, 
        -0.6832186094354048, 
        -0.61519035852107784, 
        -0.79998524256892611, 
        -0.80027363021393838, 
        -0.80008114930128527, 
        -0.79999376924801557, 
        -0.79995440393020523, 
        -0.79989874820608797, 
        -0.80019634154872277, 
        -0.79999427710930682, 
        -0.79992163308455921, 
        -0.80009901373068881, 
        -0.80021502744698803
      ], 
      "lbp": [
        -0.60019255280327033, 
        -0.7999553003693215, 
        -0.60008243827208052, 
        -0.60003757487864584, 
        -0.80000957763466296, 
        -0.79984416627753951, 
        -0.6003572154125999, 
        -0.79989800384728016, 
        -0.80032712062244304, 
        -0.8002874046909676, 
        -0.80021558535974613, 
        -0.80038833269980958, 
        -0.70044777554223681, 
        -0.60048593140998541, 
        -0.80012502781159667, 
        -0.63098109119028556, 
        -0.66398973502797631, 
        -0.64784747890235272
      ]
    }, 
    "weights": {
      "raw": [
        [
          0.023326557724869912, 
          -0.01918270006332642, 
          0.040855998405711, 
          0.00982720015856048, 
          -0.19780553408106047, 
          0.00863460196806368, 
          -0.17792454429822577, 
          -0.029316882577620582, 
          -0.13995816031356328, 
          0.2428077913132998, 
          -0.21018668840199245, 
          -0.15995532424116887, 
          0.09793861101983126, 
          0.05086152878179478, 
          0.022379326856009525, 
          -0.010920503166247, 
          -0.10548059276176727, 
          0.07938671432488302, 
          -0.08348179755034034, 
          0.1321525542694205, 
          -0.10857502458292419, 
          0.14644375774136753, 
          0.08867672449059402, 
          -0.08134550242631185, 
          -0.07693386011648749, 
          0.051332846355984764, 
          -0.10642224926115423, 
          0.10949343565498804, 
          -0.11912003046477648, 
          -0.026352175468829137, 
          0.0899857140756022, 
          0.0202460459424929, 
          -0.08116737425772454, 
          -0.19662608343631838, 
          0.11276785261960376, 
          -0.046580260025569586, 
          0.13158604876097457, 
          -0.12457089548468914, 
          0.02037790497746918, 
          0.06247388786127356, 
          0.17685547893204054, 
          -0.0571392897965526, 
          0.10313681137352973, 
          0.014065424628393384, 
          -0.22318476254533182, 
          0.00879518136447438, 
          -0.02018057779724368, 
          -0.05183739168681317, 
          0.016575365664477346, 
          0.08634265648254029, 
          0.3062759785012004, 
          0.09120114304644654, 
          -0.04138582803178372, 
          0.020766545484892464, 
          -0.059129999397651935, 
          0.011139139789907545, 
          -0.11169680368384036, 
          -0.10647405871710051, 
          -0.057444509205896714, 
          0.039223745661493205, 
          0.0769285707200686, 
          0.08650830471250788, 
          0.06948960789528867, 
          0.16650415558679027, 
          0.02141985121584858, 
          -0.017387002227334268, 
          -0.12566585229111635, 
          0.0367999609510685, 
          0.20509533400785185, 
          0.01679989285554282, 
          -0.20602901076480035, 
          0.033394810841104815, 
          0.04066452454908752, 
          -0.23761237580119193, 
          -0.024390287719603124, 
          -0.008927076438240549, 
          0.1012117686752667, 
          -0.07346225442112944, 
          0.14016112379203102, 
          -0.009849509674442942, 
          -0.07627990384779167, 
          0.041290256997241634, 
          -0.01047072534718523, 
          0.003872949481876074, 
          -0.17859155604930071, 
          0.10586384076199504, 
          0.033026921662455536, 
          -0.10691899997008536, 
          -0.12949291520516237, 
          0.09847500898448273, 
          -0.1291923679452719, 
          -0.03603335220561768, 
          0.1405506543998555, 
          -0.16697647751466457, 
          -0.12163647992177169, 
          0.1625930577385291, 
          -0.23128027878687996, 
          -0.0384787491569151, 
          0.14705155031051062, 
          0.02536205589200499, 
          0.04817209132437783, 
          0.11298899172526577, 
          0.027600215255549305, 
          0.015732549809336534, 
          -0.06815516927604669, 
          0.04318149588149218, 
          -0.12164921906445161, 
          0.12157353004878489, 
          -0.06592173381871953, 
          0.015258683698390518, 
          -0.04070963988494667, 
          -0.029126109500631055, 
          -0.06631506417934524, 
          -0.049880403828492445, 
          0.029157144234133625, 
          0.0528569596231009, 
          -0.16272310968275608, 
          -0.013276322507071857, 
          0.10463914969986769, 
          -0.07353328230271378, 
          -0.07399733351003283
        ], 
        [
          -0.022749616528758156, 
          0.008344970128219071, 
          0.03518510621596899, 
          -0.009981483531049667, 
          0.13527348693269875, 
          -0.12872439300307775, 
          0.11450379594165114, 
          -0.13285820761199515, 
          0.07662214231051061, 
          0.03713342051010546, 
          -0.2887485310188128, 
          -0.07287020880456443, 
          0.031016705128054815, 
          -0.026998092081509113, 
          -0.05850652603031667, 
          0.04081639909549529, 
          -0.037196923206968706, 
          0.044119472165802816, 
          0.05240644042827027, 
          -0.045953072303830854, 
          -0.07303530702110168, 
          0.036844922354658104, 
          0.10890247322298431, 
          0.08143779140971115, 
          -0.01424275747123406, 
          0.06606609551707922, 
          -0.04011013310436269, 
          -0.00930358920701808, 
          0.0005163755150255795, 
          -0.2204063800176993, 
          0.0024857897765429788, 
          -0.0840874299207216, 
          0.06387658974466406, 
          0.08902137814081121, 
          -0.1620610475425704, 
          0.00534586089490433, 
          0.01831036587919861, 
          -0.029233904396975156, 
          -0.11020011403787158, 
          -0.051162552166500834, 
          0.1427004770816852, 
          0.0017192794943904695, 
          0.015005369731474196, 
          0.07535909714171833, 
          -0.0005567953253246516, 
          0.015099529373484386, 
          -0.026113074513388804, 
          -0.025278319068372437, 
          -0.07463999324028862, 
          -0.09741311085624368, 
          0.051891509249389775, 
          -0.06076664436148167, 
          -0.011116298139746884, 
          -0.024686687053939907, 
          -0.03239366346778838, 
          -0.05184906899630773, 
          0.019140227717392884, 
          -0.14368869795810246, 
          -0.04645537758762419, 
          -0.0992154162790654, 
          0.09333003753485054, 
          0.047454087319199194, 
          0.0006199873845731295, 
          0.14081879518122806, 
          0.12775445765183596, 
          0.07734248234965166, 
          -0.07895281957692622, 
          0.049060165374645116, 
          0.02854220281718019, 
          -0.013145774251713177, 
          0.05791507771696858, 
          0.14540586971308458, 
          -0.014074963691074867, 
          0.08954141174233411, 
          -0.05444970686076558, 
          -0.015064810777465616, 
          -0.047176571505529535, 
          0.07906545377638345, 
          -0.10102676468056182, 
          0.0426629433652911, 
          -0.11471821751395941, 
          -0.04290062263813079, 
          0.06224659058302685, 
          0.024469465302362263, 
          -0.0438394431389518, 
          -0.016074618360814447, 
          0.01753189465157515, 
          0.03899838859387971, 
          -0.08905368818188203, 
          -0.012003801478942887, 
          -0.01816133075259135, 
          0.017823553324842742, 
          0.21158484780604098, 
          0.014960327687118195, 
          -0.0625108088177269, 
          0.06767303907010642, 
          -0.023682379026280394, 
          -0.001696454916762073, 
          -0.11175719809661074, 
          -0.01105858196374359, 
          0.09420238946112137, 
          -0.0935882310412482, 
          0.17523056806713194, 
          -0.18505706673445765, 
          -0.032497677726936396, 
          0.06003137600404532, 
          -0.09033188134554299, 
          0.004217235845048836, 
          0.16533609245377456, 
          -0.040097957903790414, 
          -0.10247628473700676, 
          0.09940013761519136, 
          0.07544319391980804, 
          -0.10175643177232489, 
          0.05444262488765245, 
          0.13048595517243874, 
          -0.07047035271500136, 
          0.007342627444751217, 
          0.064829990937504, 
          -0.03223981792009552, 
          -0.023236630573409665
        ], 
        [
          0.05246192700727043, 
          0.014769451678225033, 
          0.051384301704658665, 
          -0.1349354212096442, 
          0.08500279267622973, 
          -0.03309347271052378, 
          -0.03806777179118189, 
          -0.02515089302986727, 
          0.03345172327156083, 
          -0.032444193038508526, 
          0.009393190654376736, 
          0.027290404620463737, 
          0.02100732643142291, 
          0.056230485169586474, 
          -0.044423498938101075, 
          0.108563038320691, 
          -0.10614473771642215, 
          0.033781844884160396, 
          0.017908872399217166, 
          0.010237271115515959, 
          0.09703195298662254, 
          0.04722109916169702, 
          0.009119512460121259, 
          -0.13344425887630398, 
          0.09822142488073095, 
          -0.050801735050928484, 
          0.02091021413828946, 
          -0.11713087715027941, 
          0.12636718895927257, 
          -0.1546763509618925, 
          0.09615284867711747, 
          -0.09010528316848805, 
          0.1829098175660756, 
          0.031790472728551206, 
          0.07818586162548971, 
          -0.026075004638617758, 
          -0.014617503838148473, 
          -0.006543409430089493, 
          -0.057742090937020464, 
          -0.03328386050278655, 
          -0.08793762513637478, 
          0.01005544233822142, 
          -0.009405357548872444, 
          -0.19010575649304964, 
          -0.08587807708675238, 
          0.012779267586480349, 
          -0.022806569466833, 
          -0.09179381601483055, 
          -0.10947779423844219, 
          0.024986129530033326, 
          -0.08987608716851607, 
          -0.07120912782616208, 
          -0.1354572784256169, 
          -0.07018203165943872, 
          -0.14162432532189062, 
          -0.1768699408735466, 
          0.010900230083702922, 
          -0.06625349259587465, 
          0.05294977016812963, 
          0.06797059269585422, 
          0.1450174686354993, 
          0.13357799962287326, 
          -0.014311747951898806, 
          0.0687139378970791, 
          0.13782803813267872, 
          -0.13327752231888068, 
          -0.02634475349981233, 
          -0.034890821113113146, 
          0.10221691260611475, 
          0.058101682081820615, 
          0.0694794364516652, 
          -0.04900456021544247, 
          -0.07250912539284854, 
          0.13082993218436556, 
          0.032310958785845736, 
          0.00479639058185217, 
          -0.09964425349338304, 
          0.0943731109996081, 
          -0.08372740085431374, 
          0.0692949747147131, 
          -0.05941373371551456, 
          0.07188258764025633, 
          0.06473337603746165, 
          0.03788498825888444, 
          0.02601960597559637, 
          0.032431861555559154, 
          0.0035454244477507715, 
          0.14023908282733277, 
          -0.035196932527566616, 
          0.16054255913985188, 
          0.03532289583841373, 
          0.05355026913272002, 
          -0.1713865559344686, 
          -0.1337916501763088, 
          0.14305610688280576, 
          -0.0868395198196566, 
          0.06560345751139385, 
          -0.09762536904803708, 
          0.020740009005176134, 
          0.0038427415311026152, 
          -0.11647853022259015, 
          -0.12716373535128764, 
          0.033254726652426986, 
          0.10992320973565037, 
          -0.014603717667009271, 
          0.0625163882096938, 
          -0.10782879949797282, 
          0.1601421044231246, 
          0.0059012317483134, 
          0.11795065627087856, 
          0.07749776227977888, 
          0.1248099754629043, 
          0.2028973774347499, 
          -0.1554607324991954, 
          -0.026988647413639096, 
          0.009974132964426993, 
          -0.03767150800985802, 
          0.027915241922524803, 
          -0.13354733793511073, 
          -0.035579891534173166, 
          0.1130974725792818
        ], 
        [
          -0.0764588312487484, 
          0.017079217392561265, 
          0.07902219697338446, 
          -0.09589336694382619, 
          0.07712852378881374, 
          0.1379581454867179, 
          0.014955538440210024, 
          0.06542820722502814, 
          0.018197040386913697, 
          -0.12930740910183972, 
          0.06729271390097648, 
          -0.1570114212416639, 
          0.0915468029969675, 
          -0.008268190590993787, 
          0.10041249792793305, 
          0.07118610934289547, 
          0.10246966777341682, 
          -0.03297428931015907, 
          0.026695723137109394, 
          -0.003954745031435225, 
          0.05255788701492578, 
          -0.26023658746287737, 
          -0.08491297297887206, 
          -0.037071534484592966, 
          -0.0324536160681313, 
          -0.11822897811965066, 
          -0.015808474803919503, 
          0.03157228991909182, 
          0.030288765472796998, 
          -0.14184483534859818, 
          -0.024666700067593056, 
          -0.09754891340568482, 
          0.003086863384961165, 
          -0.10663674526442771, 
          0.027377726876570724, 
          -0.17343378502600434, 
          0.06899839900945108, 
          0.031900168669615724, 
          -0.15113755299861759, 
          -0.013116255086696114, 
          -0.1226884620969361, 
          -0.07886489498096054, 
          0.07765368557438848, 
          0.07472977506350924, 
          0.15765855244049468, 
          0.09118036298182348, 
          -0.06291292474540397, 
          -0.0783734505387282, 
          -0.10110839123264659, 
          -0.0513485430046178, 
          -0.1388338025199282, 
          0.06419210158844711, 
          0.0026642336857123482, 
          0.1538735351807286, 
          0.007432636424758271, 
          -0.027407450169691403, 
          0.2236174294922599, 
          -0.08963377017561507, 
          -0.007229088621613901, 
          0.08882338810055357, 
          -0.048344728734049235, 
          0.067306368628077, 
          0.14204295132932526, 
          -0.07127107672679277, 
          0.08619634271804621, 
          0.012901866180368, 
          0.025108053665982757, 
          -0.1149184753035665, 
          0.11622273540958354, 
          0.10982018971858985, 
          -0.030397079894368226, 
          -0.04242283711733001, 
          0.08975096676256245, 
          -0.08078195138745299, 
          0.022553711073617734, 
          -0.0008639935715391025, 
          -0.02337902683030242, 
          -0.004069019250887753, 
          0.024486581393257236, 
          0.07583697077458097, 
          -0.25758914787959447, 
          0.18557078131126223, 
          -0.17572562623921648, 
          0.10042492722372666, 
          -0.10338582922214652, 
          0.009148470872335715, 
          0.03259134572717449, 
          0.035301272534855876, 
          0.12491112089065148, 
          -0.06881394287622328, 
          0.032401694447845734, 
          0.049495035599196616, 
          0.0556830881349345, 
          0.027994489621729804, 
          0.027290377840090488, 
          0.10751231682352898, 
          0.07802920176683288, 
          -0.038681312042407864, 
          0.026616882792568457, 
          0.07466328666401036, 
          -0.0716404966840966, 
          0.003390604595889359, 
          0.0481151006332138, 
          -0.12834508384320542, 
          0.1772951968905713, 
          -0.21993889740010011, 
          -0.0773510934062776, 
          -0.10283091215937787, 
          0.03029802613509926, 
          0.08319364358374101, 
          0.052277421943683636, 
          -0.051895905441355326, 
          0.04423761784491068, 
          -0.0036557469925411782, 
          -0.055033275934392945, 
          -0.026587321376257536, 
          0.10205211593048939, 
          0.08161528462807503, 
          0.0641664261503081, 
          -0.00027392930350834954, 
          -0.050034327147559586
        ], 
        [
          0.04370390055108273, 
          -0.012210245455550502, 
          -0.15234736949812502, 
          0.018205354726067942, 
          0.005527817953023521, 
          0.0710021888538928, 
          -0.08100053170639883, 
          0.07985587271319648, 
          0.006715331327414874, 
          0.02258625739127721, 
          0.09069828957665582, 
          0.0627272546945879, 
          -0.007091121061040606, 
          0.1800892250979212, 
          0.010019686779647067, 
          -0.10754874760305269, 
          0.03185817243569097, 
          -0.13466149482115977, 
          -0.011194826914425367, 
          0.006489230592079526, 
          -0.06797869409548614, 
          -0.005792599778817849, 
          0.09516355259468308, 
          0.05588978583327255, 
          -0.07926279013763211, 
          -0.10652031211395623, 
          0.05991309557828354, 
          -0.025443261148732216, 
          0.021261420785530748, 
          0.1295976378381269, 
          0.018956073840818172, 
          -0.05229142179404289, 
          0.058975079408425245, 
          -0.05745048069946951, 
          0.006578757866624816, 
          0.06460025774054715, 
          -0.21894752769099987, 
          0.13460805627383415, 
          -0.05356342147099325, 
          -0.12849406657028423, 
          0.009315828082143526, 
          -0.008530866710335462, 
          -0.04004939703264249, 
          -0.03385385523909267, 
          -0.026248231339049265, 
          -0.08651625326359219, 
          -0.10410695478107478, 
          0.009129004768149936, 
          -0.08454293729861855, 
          -0.03504270555487234, 
          -0.10472001395720353, 
          -0.06783580961600945, 
          0.021341324424105926, 
          0.022241774143079214, 
          -0.09663376150893359, 
          -0.3143771438546109, 
          0.01960710789050047, 
          0.028788037444363545, 
          -0.1213440339633215, 
          0.21742752925558875, 
          -0.011383888417089419, 
          0.1896804687170945, 
          0.04436195915577201, 
          -0.02437996322788324, 
          0.020979915229405465, 
          -0.11654082337731944, 
          -0.03102052224629349, 
          0.042082950676048024, 
          -0.005995720910330971, 
          0.13402356965073603, 
          0.11860718596068856, 
          -0.04533150510368762, 
          0.031413887485522665, 
          -0.06207851943110086, 
          0.06297367815507879, 
          0.1856533182029761, 
          -0.15673211632207465, 
          0.018378409849644502, 
          0.09483658878972596, 
          -0.004494682441124963, 
          -0.018233187306081713, 
          0.050552768655823595, 
          0.04168055427573195, 
          0.02462957073263504, 
          -0.12688027813165617, 
          0.13329427086160553, 
          -0.13844750674502457, 
          0.10282347538330965, 
          -0.012236787333803446, 
          -0.0007906825938026581, 
          -0.028078961068038265, 
          0.002436211585264733, 
          -0.092144421557126, 
          0.05909467192642709, 
          -0.020405133502897417, 
          0.04412551088771491, 
          -0.0802823473997317, 
          0.15945139364865107, 
          0.0782839753306254, 
          0.11309645948107974, 
          -0.025179031995558147, 
          0.04191791989419092, 
          0.015959055661275576, 
          0.16512915524988103, 
          0.04893298122521964, 
          -0.026741875630109973, 
          -0.03413253447447808, 
          -0.008662101198928905, 
          -0.1593819668979972, 
          -0.012818633030136126, 
          0.13620333899972156, 
          -0.009224381817510004, 
          -0.02874710615410241, 
          -0.06553361958790507, 
          -0.036657366219291984, 
          -0.050937737800607036, 
          -0.1057196375030451, 
          -0.030738438023109577, 
          0.1453077342641684, 
          0.10732152609740526, 
          0.11705058596066391
        ], 
        [
          -0.1529183437207253, 
          0.07860404887324998, 
          -0.034600633961719064, 
          -0.01856441631332521, 
          0.11893617462660533, 
          -0.13183898958309923, 
          0.13499421086911662, 
          -0.0005547112337911988, 
          -0.09022471166720453, 
          0.034163989575314316, 
          -0.016375237404814117, 
          -0.24238537162566612, 
          0.14672324272121615, 
          -0.06459605400843375, 
          0.006531743077990997, 
          -0.0318745239956592, 
          0.05982788397636535, 
          0.033877984806529114, 
          -0.012734205388277992, 
          0.09051765357723368, 
          -0.05465428870849009, 
          0.014406069396420876, 
          -0.07380381705818144, 
          -0.05319629477030033, 
          0.05943121881639385, 
          -0.02017765879510842, 
          -0.1043932951734948, 
          -0.05332029176831317, 
          -0.003103891649057644, 
          -0.05280699397086361, 
          0.11316571067090248, 
          -0.10592132149723735, 
          0.0814475490440365, 
          0.08527143553767219, 
          0.06289755856952148, 
          -0.1756724340760426, 
          -0.0451666518214788, 
          0.01668102290841875, 
          -0.05159793609388755, 
          -0.00016104981108105483, 
          -0.061956598062140086, 
          0.16510386871305124, 
          -0.1552542751739772, 
          0.04052690202032198, 
          -0.002203434916283838, 
          0.0575037267260179, 
          0.10278008466015119, 
          -0.001635580425275436, 
          -0.1090966553427251, 
          -0.03975710181031223, 
          -0.1022943772742019, 
          -0.09139831118249533, 
          -0.03253739887134819, 
          0.06420229301777451, 
          -0.040313873084078675, 
          0.04327061033758009, 
          0.03197160510876442, 
          -0.1537059564724267, 
          0.11267969849286166, 
          0.13210835878335198, 
          -0.11584846424365522, 
          0.020893487409538853, 
          0.05986742127316601, 
          -0.011342621635268023, 
          -0.06645675560241163, 
          -0.03909559185483576, 
          -0.021367185499468873, 
          0.15645513776224867, 
          0.1349253051596105, 
          -0.12177803923961997, 
          -0.0015814842939989734, 
          0.2546584116277316, 
          -0.08326404571596763, 
          -0.04138907405287646, 
          -0.051108043356156006, 
          0.01195407859842753, 
          -0.01819997643299206, 
          0.07022810320910107, 
          -0.12288266626602405, 
          0.08233894488214033, 
          0.06976168873474012, 
          0.05539260883637747, 
          0.0031448586947959343, 
          0.04019757673968273, 
          -0.10827283578087483, 
          0.11967949539251059, 
          -0.03186618195228554, 
          -0.06981075695314876, 
          -0.15384105395483774, 
          -0.022000086281390524, 
          0.021268904384561194, 
          -0.10061519162259248, 
          0.028466507183502958, 
          -0.008042974458621621, 
          0.27997234162939433, 
          -0.013275736949989072, 
          -0.11410016835639142, 
          0.015643922526265668, 
          0.0035543329305281067, 
          -0.01808485814476876, 
          0.08861822044182022, 
          -0.03884468548624983, 
          0.0036688645477594224, 
          -0.07013659670508733, 
          0.01674142172757873, 
          -0.13588258146076984, 
          0.08866283652358756, 
          0.021792596472140654, 
          0.07428518975416999, 
          -0.06403109305050748, 
          -0.03766744428201919, 
          0.0973608701141607, 
          -0.0074206817161523615, 
          0.048396714968062485, 
          -0.1125946553559579, 
          0.1324877439195932, 
          0.07446332643472077, 
          -0.09197321680283645, 
          -0.05316158347243583, 
          0.07726603428485736, 
          0.016626931462173755
        ], 
        [
          -0.013636470242336133, 
          -0.17536551711975418, 
          -0.00042074788627924093, 
          -0.08055854330047452, 
          -0.07888110538705613, 
          -0.1204407266965188, 
          -0.025016917707633448, 
          -0.006565031259836409, 
          -0.06610845840018628, 
          0.03965794130183621, 
          -0.060725489569977975, 
          0.1775983193640964, 
          -0.009872971990465168, 
          0.06028997373766578, 
          -0.022798448437140087, 
          0.09425879964775956, 
          -0.17999676923134383, 
          0.08757417833468843, 
          -0.04476152188632167, 
          -0.019844963060019212, 
          0.09038881812174636, 
          0.06130524065993505, 
          -0.08813319405985655, 
          0.13011641302003998, 
          -0.028123050705470817, 
          -0.04623072790400348, 
          0.02473625715734011, 
          -0.17988641955706433, 
          0.18769950018451037, 
          0.06684784425353622, 
          -0.020419697137228923, 
          -0.12138739690285556, 
          -0.07994419166252588, 
          -0.1617611781164735, 
          0.041359760610311866, 
          0.0737656821731519, 
          0.02815442565148039, 
          0.036212725649618596, 
          0.045845611307966695, 
          -0.10617353469655043, 
          -0.09423318327359904, 
          -0.07036011382975448, 
          0.1920871026504097, 
          -0.2255575450047028, 
          0.13842329154850014, 
          0.0032770685453626237, 
          0.0988240826238113, 
          0.1980888811791984, 
          0.002892188205287013, 
          0.12675596171707165, 
          0.030956763923761378, 
          0.009160611425275845, 
          -0.028110840517603153, 
          -0.06321409037334567, 
          -0.026848628621931242, 
          -0.09869217684467536, 
          0.02214304905492185, 
          -0.0009560706271898043, 
          0.01823856226386767, 
          0.3224832929355145, 
          0.13518928823809023, 
          -0.1286943849316431, 
          -0.016952086140668187, 
          -0.13846398750465666, 
          0.1856347192001663, 
          -0.1820989352461646, 
          0.07626746982527734, 
          0.009448817851230508, 
          0.15622136359596386, 
          -0.04824547491667951, 
          -0.21206129074451513, 
          0.08445337619083483, 
          -0.1522207711518582, 
          0.2484971365721307, 
          -0.09197409462533652, 
          -0.010586764888895584, 
          -0.17388968875298608, 
          0.0828497023695593, 
          -0.1681514689907861, 
          0.062164947876938666, 
          -0.17576789396499976, 
          0.09001582278989383, 
          -0.13874946979593072, 
          0.12473542620558835, 
          -0.17307026635028475, 
          0.052914528925913966, 
          0.22352702982189873, 
          -0.07318765768098603, 
          0.01439659934722742, 
          -0.06698608389081694, 
          -0.004960152006509035, 
          -0.04030336662728584, 
          0.004819945233786926, 
          -0.1873169045559905, 
          0.03796142065704105, 
          -0.024927896460882042, 
          0.07971589390314024, 
          -0.1340039155614464, 
          0.023178869304694788, 
          0.0486472045578905, 
          -0.13952595844916693, 
          0.17797562062972025, 
          -0.1023435643630665, 
          -0.02086113003782607, 
          -0.06742607052762713, 
          -0.01845879296334071, 
          0.05992608575102704, 
          0.06727576993343776, 
          0.005888144239860299, 
          0.08163630644283064, 
          -0.10356743609992129, 
          0.10475934945493841, 
          -0.05494800394397829, 
          -0.009975708228344418, 
          -0.08169607723483856, 
          0.0017531258625879717, 
          0.046948680841897135, 
          -0.015553163915111877, 
          -0.1269241357313472, 
          0.05609485534420094, 
          -0.12205430889165228
        ], 
        [
          -9.565766290077149e-05, 
          0.00010859373255824426, 
          1.24280769277893e-05, 
          0.000649264870272539, 
          -0.0008006556415345108, 
          0.00045164306374602435, 
          -7.530672787615456e-05, 
          0.0001315035618045511, 
          -0.0002762167777085661, 
          0.0002560560900362013, 
          -4.874482190333647e-05, 
          0.00031608403783205813, 
          -0.0010129006291541842, 
          0.0009210325815085769, 
          -0.0009323289638076296, 
          0.0007755629675923174, 
          -0.0005642793994540293, 
          0.0004905339229950545, 
          -0.0004652993622217927, 
          0.0005091009100691983, 
          -0.0001659009657437836, 
          -0.000295290683212164, 
          -0.0003122015843016971, 
          0.0005333905014270925, 
          -0.000434362308771215, 
          0.0005339304907011153, 
          -0.000934202400217818, 
          0.0008226958215687341, 
          -0.00030872008297503934, 
          0.000565927665817507, 
          -0.0006847503571573228, 
          -0.00019326395617405738, 
          0.00031031269909620213, 
          -0.0002617069034160637, 
          0.00046842429638323203, 
          0.00010525100673703931, 
          -0.0006265195618192915, 
          0.0008590974593272291, 
          -0.0006798231021765552, 
          0.00018093830472091068, 
          -0.00010154405793153701, 
          0.00017887174895806323, 
          0.0005923970622710478, 
          -0.0004315095186696238, 
          8.668363523265827e-05, 
          -0.0005223078678557105, 
          0.000452550310270969, 
          -8.472409928310429e-05, 
          0.00018394326634166183, 
          1.7754547899905807e-05, 
          0.0002046570017104147, 
          -0.00025414656630409326, 
          0.00023869918318951105, 
          -0.0005486564136892179, 
          0.00026393223672478683, 
          -0.0004612129197315647, 
          0.0007358650034602994, 
          -0.0007686307933483186, 
          0.0002190138049327451, 
          3.124124954770757e-05, 
          -5.110840787551138e-05, 
          -8.31946382423875e-05, 
          -0.0001314918197643554, 
          0.00010938961284840105, 
          0.00034515618581624965, 
          -0.00023526765064717014, 
          0.0003697353398309604, 
          -0.00035439807234130966, 
          0.0003964884833998252, 
          3.301439432036025e-05, 
          0.0003164514408873568, 
          -0.000355699633183478, 
          -0.00020606576623842748, 
          3.9236976681738206e-05, 
          0.00014818369169876302, 
          -0.0003268428078538011, 
          0.0002345050981512231, 
          3.879480390532439e-05, 
          0.00010038678861392496, 
          -0.0006637325020949023, 
          0.0008333087851198377, 
          -0.0010620150244551917, 
          0.0005740658329471599, 
          -0.00026812326336985185, 
          0.0005194806238681209, 
          -0.0006715590248875056, 
          0.00033580295208249017, 
          -6.917569112829422e-05, 
          -4.845387719379368e-05, 
          -0.00021099967371048575, 
          0.0004896297542926896, 
          -0.00040873019078351306, 
          0.00035583020576194797, 
          -7.576474655556032e-05, 
          -9.903238332473626e-05, 
          -0.0001723017552077554, 
          0.0004350604917155729, 
          -0.00014156982681492444, 
          -2.2565444876419667e-05, 
          -4.210489882061019e-05, 
          2.304200364406906e-05, 
          0.00022430191455187834, 
          0.0003483846536158004, 
          -0.00035025885632259513, 
          3.4541202604097914e-05, 
          8.92703326685635e-05, 
          0.00019988940675213368, 
          -0.00022100716779169382, 
          -0.00010357130123534075, 
          0.00021946215898134742, 
          0.0001725539355491848, 
          -0.00017775179358085085, 
          0.0003195843549367637, 
          -0.00038262801957758373, 
          0.0005583777178675173, 
          -0.0005543591222615207, 
          0.0003948409333661227, 
          -0.00016893325021977664, 
          -5.916203180395684e-05, 
          0.00023433017933967943, 
          -0.0003162476238746173
        ], 
        [
          -0.00030759898574770055, 
          0.0004258535367628096, 
          -2.3029377074114696e-05, 
          0.00027299657891119737, 
          -0.0007375241339908738, 
          0.0006713982172857135, 
          -0.00035161592242279846, 
          0.00015137643745928052, 
          -7.788606978864176e-05, 
          0.00033541689885680344, 
          -0.0003673712119360774, 
          0.0003561151886686106, 
          -0.0005973275586821231, 
          -2.579168384285316e-05, 
          -0.0001881270931351981, 
          0.0005030168663674451, 
          -0.000117145554177418, 
          -9.035437370786077e-05, 
          9.329091666437374e-05, 
          6.0842384690229823e-05, 
          -0.000429644871854593, 
          0.0005169234381712349, 
          -0.0004199010065690867, 
          0.0005149316581436191, 
          -0.00031904252879772486, 
          0.00031117693259111027, 
          -0.00019270864445801927, 
          -0.00032185723818122566, 
          0.0005381506909746239, 
          0.00014342974384183094, 
          -1.0682988321886574e-05, 
          0.00018259604507884242, 
          -0.00044038466329056634, 
          -0.00011596668394658483, 
          -1.2666614617540714e-05, 
          0.00017828119557899372, 
          -0.00017500141094771207, 
          1.573570783308634e-05, 
          0.0004148628328766169, 
          -0.00015006566579569148, 
          -0.00042602986464437153, 
          0.00013648431049467097, 
          0.0002259870631507151, 
          4.888922549974224e-05, 
          2.3539295346766808e-05, 
          -0.00021755633284369525, 
          6.70916479020548e-05, 
          8.625663119338868e-06, 
          0.0002464679781422704, 
          3.7522722931799884e-05, 
          -0.0003398321022404403, 
          0.00045226265240364276, 
          -0.00021539597137960518, 
          -3.983658906852314e-05, 
          -0.00012855752476054183, 
          -0.00034970001444659365, 
          0.000415555049825357, 
          0.00030812980443016915, 
          -2.3662022441903457e-05, 
          -0.00014220888916861908, 
          -0.00021305811380302087, 
          0.00029604300393561655, 
          -0.00014005747497382868, 
          -2.239904885303895e-05, 
          -0.00010971657416523285, 
          7.492829968062871e-05, 
          0.0006358837157471703, 
          -0.0004969267648424645, 
          -8.664920748738496e-05, 
          -0.00030337872368655164, 
          0.0003348300362959661, 
          -2.5156027131220797e-05, 
          0.00019034984962855266, 
          -0.0004667649807373685, 
          0.0004293301860984696, 
          -0.00037853111358151744, 
          0.00019133046012377225, 
          4.021080677551367e-05, 
          1.0672976979965172e-05, 
          0.00018317681332970532, 
          6.868320097561411e-05, 
          -0.0002500072094532875, 
          4.3114165690593753e-05, 
          -0.00018246489125744287, 
          7.22599681006085e-05, 
          4.438693820194511e-05, 
          0.00024120491739220988, 
          -8.827882991974442e-05, 
          -0.00010304757577883367, 
          0.00022913974277338984, 
          -0.0001863268365350046, 
          -0.00010248032014448999, 
          0.00010567599481280778, 
          0.0002819814020310439, 
          -0.000288339722672329, 
          0.00035946539846162524, 
          -0.0004012067853472946, 
          -7.136484648142302e-05, 
          0.00010295383112121882, 
          0.0002053517089453417, 
          -0.0002299408493916487, 
          5.93299919626223e-05, 
          -5.7683306645330286e-05, 
          0.00033100563851823725, 
          -0.0006540230618618956, 
          0.0005737566565539895, 
          -0.0003793821244383836, 
          0.0003270386997907681, 
          -9.780878548921491e-05, 
          2.636669956234544e-05, 
          -0.00013583899747770454, 
          0.00026063704839191773, 
          -5.7314173353851165e-05, 
          0.00010494459602619275, 
          -0.00036782166758125894, 
          0.00027793236231292754, 
          -0.00028472314255860844, 
          0.0002070555428533189, 
          -0.0002783041447724689, 
          0.00015937337975506616, 
          -2.601845097394502e-05
        ], 
        [
          -0.0003285757094926546, 
          0.0002727099849835847, 
          -0.00020186396966190255, 
          0.0004546857752163465, 
          -0.0004838484478333603, 
          0.00047274158389393835, 
          -7.892390021411075e-05, 
          0.00020385065963778246, 
          -0.0003785013720768778, 
          1.5529491934608896e-05, 
          -0.00014281293022497645, 
          0.0002954168279816294, 
          -0.00022537040626903143, 
          -0.00015566353144222874, 
          6.154448460957026e-07, 
          -0.00033318230243608134, 
          0.00016018515548032176, 
          -3.249872997231183e-05, 
          -0.000289306239083624, 
          0.00013492396543472588, 
          0.00040413895253402915, 
          3.72023244732829e-05, 
          -3.2109156620724907e-06, 
          6.147937417357896e-05, 
          0.0003401564446201119, 
          -0.00037116124184626145, 
          0.0007135623045743608, 
          -0.00041710214008790875, 
          0.0005468511016692585, 
          -3.07439055443292e-05, 
          -0.00029754383150925923, 
          -0.00024074908423014958, 
          0.00023777022125094708, 
          6.646695992568356e-05, 
          8.485085858018128e-05, 
          -0.000585362901325758, 
          0.00020772366394733368, 
          -0.0004896847521260878, 
          0.0004180715568290364, 
          -0.0008304119629372897, 
          0.0005063347792773767, 
          0.00012402293479698645, 
          0.00027187939119889033, 
          -0.00020111007445454724, 
          -0.00017392558492162946, 
          0.00017273085557039029, 
          0.00038136585538208563, 
          -0.0002467801623606168, 
          0.00046129025188342704, 
          -0.00046128993557979726, 
          0.0008037290080106251, 
          -0.00043654034884500515, 
          -8.682037753579173e-05, 
          4.977962596147871e-05, 
          4.5764507701649355e-05, 
          0.00025591117628728495, 
          -0.0005168574980951904, 
          0.0005471556563692133, 
          -0.0007306897911906502, 
          0.0003830851901777042, 
          2.5017441440577246e-05, 
          -0.0004005452229890993, 
          -7.794747621970942e-05, 
          0.00039472124614051065, 
          -0.0002006754479068765, 
          -7.589565007117445e-05, 
          -5.013385273079406e-05, 
          1.4361031957064943e-05, 
          -4.2877524515263704e-05, 
          0.00020276759678589036, 
          0.0002878789595559292, 
          -0.0006952833869882643, 
          0.0006681091321191644, 
          -2.667880186973704e-05, 
          -0.0004083641801762456, 
          0.0003399062724999184, 
          -8.728886958933261e-05, 
          -6.358669107738822e-05, 
          0.0003792931748559645, 
          -0.00042607059961155287, 
          8.56816371817776e-05, 
          -0.00011227537061751971, 
          0.00013175554226963022, 
          -0.00011582216458205351, 
          -0.00035521091265008925, 
          0.000337100611389346, 
          -7.334636131060531e-05, 
          -7.378518499173279e-05, 
          0.00015240203203215636, 
          -0.0004741653998091112, 
          0.0006995854453027306, 
          -0.0007111271620437282, 
          0.0004688487076149837, 
          -0.0004985415769516447, 
          8.127121813646857e-05, 
          0.00034433396629097003, 
          -0.00039755771435039615, 
          0.00023177751586150535, 
          -0.00017845173792900535, 
          -0.0003008401135028109, 
          0.00043155204450243904, 
          -0.0003744148638913505, 
          0.000374166402110837, 
          -0.00036961618414734843, 
          0.0005950037472360099, 
          -0.0003500833347680881, 
          -7.197975585407912e-05, 
          0.00035671949302707085, 
          -8.525124136139294e-05, 
          0.00025256121045887656, 
          0.00023208731853805557, 
          -0.00029058483631205155, 
          0.0002046391893295519, 
          -2.216163677821112e-05, 
          -1.2256521966040954e-05, 
          -3.258241227206763e-05, 
          -9.58587982294066e-05, 
          0.00013900331128422023, 
          -6.24085115957675e-06, 
          6.449765020279143e-05, 
          -0.00024889530364610897
        ], 
        [
          0.00014981843894279912, 
          0.00016083978280225566, 
          -8.473560715315138e-05, 
          0.00047586082354051496, 
          -0.0008732847995471313, 
          0.0007995278245488736, 
          -0.0008507194773109042, 
          0.0005831698684416002, 
          -0.00018455499825217474, 
          -0.0003630699560100801, 
          0.0003462166441101333, 
          -0.00011617177315735193, 
          1.657075374727066e-05, 
          -0.00036583851245252784, 
          -0.00014984501337636324, 
          0.000916361287484661, 
          -0.000531637046354857, 
          0.000520069814287576, 
          -0.0002598856863446831, 
          -0.0001615679203288111, 
          0.00043608630255298334, 
          -0.0006180013917530779, 
          -0.000234806830882518, 
          0.00033189224481665233, 
          0.00028308282704779655, 
          -0.00010851932020600819, 
          -0.00019422458963327962, 
          3.127436536233793e-05, 
          -2.003744885698377e-05, 
          7.814782116932309e-05, 
          -4.370765675801529e-05, 
          0.00014443896567145522, 
          0.00010613360248499127, 
          0.00018854435847105795, 
          -0.00040864033170832296, 
          -0.00012968093970584002, 
          0.0004885860598370585, 
          -0.0002330106304273418, 
          0.0002226764025583574, 
          -0.00019389161580824973, 
          0.0003179663072257801, 
          4.967800822041868e-05, 
          -0.00038644090843960137, 
          0.0001317666063004759, 
          -0.00035206574171073524, 
          0.0005653029980006366, 
          5.1804296673589226e-05, 
          -0.0007394504915194317, 
          0.0008124238129106667, 
          -0.0001699740758912537, 
          9.91917841603713e-05, 
          -9.964099769364972e-05, 
          -0.0001424276641446136, 
          0.00023269495057582422, 
          -0.00038671114698202755, 
          3.098254569814629e-05, 
          -0.00018049860488900433, 
          0.0001097566883562757, 
          0.00019583059651725746, 
          -0.0006235173999722733, 
          -0.0002291334372810804, 
          0.00032021144122055937, 
          0.0002214725594527514, 
          0.0001287371747967376, 
          -0.0002036133022246295, 
          0.0002727955306338473, 
          -9.159187981663759e-05, 
          -0.00034527433445479536, 
          0.0002968582725953475, 
          -0.0004231254196748057, 
          0.0004667280812357905, 
          0.00017606039261783448, 
          -0.00017076956998159342, 
          -0.00018764145667917592, 
          0.0003053141476937257, 
          -4.381944316029484e-05, 
          -0.00010310045157996484, 
          9.868434192285343e-05, 
          -9.760419348787232e-06, 
          6.40078785610408e-05, 
          0.00013077634339815308, 
          -0.00013604029369479952, 
          -0.00023741619038232506, 
          5.949130437138252e-05, 
          -0.00015983599156109933, 
          -9.12860580616909e-05, 
          -0.00020043260915035728, 
          0.00024363196974862386, 
          -8.54432701835617e-05, 
          0.00031622949409664024, 
          -0.00020471131474709078, 
          -0.0002890855837592061, 
          1.0339383984208991e-05, 
          7.741597398258934e-05, 
          -3.4559023861229425e-05, 
          0.00013833467068924857, 
          8.6051990227802e-05, 
          0.0005267476065131281, 
          -0.0005743440640169641, 
          1.267645471264056e-05, 
          -0.00011027292922403321, 
          0.00017035735522677898, 
          0.00018743744318013234, 
          0.00010852596789004568, 
          -0.00015551783616524076, 
          0.0001827308602391681, 
          -0.00029058900630755783, 
          7.69194694919527e-05, 
          -0.0004728313277474108, 
          0.0006694190068623787, 
          -0.00015255094625179312, 
          0.0002978871291982288, 
          -0.0001241636226496094, 
          4.635758098975806e-06, 
          -0.0003226762548207481, 
          0.0004904983246000016, 
          -0.0005507302288330068, 
          0.0002689564203723395, 
          -0.0003632740483332335, 
          0.00041947024380603544, 
          -0.0002264194630805993
        ], 
        [
          -0.00013352433367729328, 
          -0.00016057996976741114, 
          0.0003242384171466997, 
          -5.191009653152309e-05, 
          0.0007204129026488312, 
          -0.0008613894882069391, 
          0.0005371045157451617, 
          -4.6417268908449856e-05, 
          -2.6270478126255826e-05, 
          1.0096442523628108e-05, 
          -1.2482341082218532e-05, 
          -0.0003087804041142556, 
          0.0008289111786925875, 
          -0.0007710742593573852, 
          6.996979208923222e-05, 
          -0.0005579649433600224, 
          0.0008765183908481843, 
          -0.000644064324522768, 
          0.000901417385569045, 
          -0.0007073614777787516, 
          0.0004172092668631583, 
          -0.00013698320196873278, 
          0.00031794110475058773, 
          -0.0006097304435507476, 
          9.321152227362383e-05, 
          0.0002755648135897494, 
          0.0009917684238369988, 
          -0.0005914989183859725, 
          -1.8011872200277308e-05, 
          -0.0007648756007768028, 
          0.0009700415488497386, 
          -0.0004950465452810154, 
          4.0964993055180184e-05, 
          -3.3704333286665764e-05, 
          0.0001529408975912992, 
          1.7647517554556912e-05, 
          -0.00038872435212807796, 
          -0.0005179999586809271, 
          0.0006300639730760075, 
          -0.00022709321716798958, 
          0.00016076430127913888, 
          0.00017274650747145433, 
          6.138218938880645e-05, 
          -0.00017897895739044862, 
          -8.855787684259617e-05, 
          0.00022177453046385, 
          -0.0007927623725724241, 
          0.0006600849517846901, 
          -0.0004544039138105782, 
          0.0007683803572169928, 
          -0.0001599419257409549, 
          -0.00024235857425673992, 
          -0.00017855360144966345, 
          0.0002700915384358353, 
          -0.00013928366868489343, 
          0.00023457015741702104, 
          -0.00048812644123414674, 
          0.0006837796703477571, 
          -8.049914104928341e-05, 
          -0.0007587992216577991, 
          0.0004789743263375427, 
          9.482609011102325e-05, 
          -0.0001926731958480715, 
          0.00043743972761353954, 
          -0.0004236934629164784, 
          0.00035665250164829864, 
          -0.0002708883593465987, 
          0.0002402319696718669, 
          -0.0004542203912014912, 
          0.00028380775106983693, 
          0.0002562990387305331, 
          -0.0004694740144920842, 
          0.0002032451449609263, 
          0.0003881561624549101, 
          -0.0005654906966709241, 
          0.0006599213854598592, 
          -0.00043354705112147224, 
          0.00033762731666878517, 
          -0.000372925002096447, 
          0.0007460065892482214, 
          -0.000769460220051106, 
          0.0002085714560127156, 
          -0.0007132680453390847, 
          0.000834386371638143, 
          -0.0008254681158600866, 
          0.000890200022928325, 
          -0.0008217898865527398, 
          0.0002834666745358826, 
          -0.00014567034750416933, 
          -8.468779645178648e-05, 
          -0.00031056296995655806, 
          0.00024531223335348657, 
          0.0007236116031280411, 
          -0.0002603987152630994, 
          -0.00035147772643429715, 
          0.0008595925714627255, 
          -0.0006615410590086826, 
          0.0001615760425825363, 
          0.00015059591473663787, 
          -1.539420352549612e-05, 
          0.0003184169280068146, 
          -0.000281584408475439, 
          0.0002429721746666056, 
          -0.0006190027065982125, 
          0.00024341786131184891, 
          -0.00012994845554666008, 
          -8.88677142978368e-05, 
          0.0008706058270783958, 
          -0.00019997628334855952, 
          -0.000419074131882657, 
          -0.00015513957862794842, 
          -1.8207286247968603e-05, 
          0.00010912452448219783, 
          -9.504682054989723e-05, 
          0.00016609790232282738, 
          -0.00015956783373080228, 
          -3.97030166351904e-05, 
          -0.0002078990417113063, 
          -0.0003053573420188318, 
          0.00029740731761941896, 
          0.0001921241682085465
        ], 
        [
          0.0002358206375791404, 
          -0.00012878115767642396, 
          0.000386633212072595, 
          -0.0006052571289048775, 
          -0.00030315254097010346, 
          0.0012518800249854513, 
          -0.0012243748343996562, 
          0.0004174007330713723, 
          0.00013523464365991923, 
          -0.000491464001037417, 
          -0.0002977312008090963, 
          -0.0002864041830022324, 
          0.00020656017117953138, 
          -3.260519168892343e-05, 
          0.0002005953822539591, 
          4.6777955932785196e-05, 
          -0.0006466767594558872, 
          0.0012476419746509375, 
          -0.0011045508802983099, 
          7.397095009809454e-05, 
          0.001129543640550318, 
          -0.0001558963881185896, 
          0.00036787662384918303, 
          -0.0005895792058518471, 
          0.0010014628305067134, 
          -0.00039303434728002007, 
          0.00010586571229164039, 
          0.00025737744798793173, 
          -0.0007308691641585741, 
          0.0002697430920590409, 
          0.0002311711124965475, 
          -0.0008567219189024966, 
          -9.312240697331927e-05, 
          -0.0003435975140494052, 
          0.0001808639980524037, 
          -0.0007291704726200527, 
          0.0005114528164034875, 
          -0.00020511347156698128, 
          0.00039162954560609313, 
          -6.507088679139463e-06, 
          -0.0009440489404515866, 
          0.0008836672273809858, 
          5.835575116589952e-06, 
          0.0007893965429933559, 
          0.00019146110594266434, 
          -0.00016503994095446277, 
          0.00041832625950115836, 
          -0.000272569016885371, 
          0.0011057776974090492, 
          -0.0018526468535828428, 
          0.0009226086160490403, 
          0.0007380767565566905, 
          -0.0006353744985371221, 
          0.0007139038695460878, 
          -0.0005184527029190672, 
          -0.00019766454087827238, 
          0.00016872498309521725, 
          -0.0006451245407838484, 
          -0.00037194475355360686, 
          -0.00025370326183513575, 
          0.0017466226555388994, 
          -0.00021844904095887478, 
          -0.0007217101597038006, 
          0.000524072435660578, 
          -0.000891144867868752, 
          0.0007421808165690618, 
          0.00018972809335316863, 
          -0.00022945761503116447, 
          0.0004114279075421935, 
          0.0006634077202709849, 
          -2.446194297039761e-06, 
          -0.0012413190815874723, 
          0.0006268814522910771, 
          -4.564088243464793e-05, 
          -0.0003899895600020584, 
          0.0007836173368227004, 
          -0.0006178332049694375, 
          -0.0005692395930750733, 
          0.001072617885484428, 
          -0.0008122730126660003, 
          -0.0002146396307431884, 
          -0.00016814014252381794, 
          0.0003726044136281307, 
          -0.00047259016850257, 
          0.0006193675257953667, 
          -3.8068310085501725e-05, 
          -0.00039877674833504437, 
          2.1990378263911423e-05, 
          0.00023228398521279913, 
          -0.00018681757099355743, 
          -0.000350768642604696, 
          0.0008638610421070093, 
          -0.0009128193852642842, 
          2.8252755024543832e-05, 
          6.645032630513613e-05, 
          -0.0003407167426807802, 
          -0.00017090101338299406, 
          0.0002960006723744163, 
          0.00027782358887733704, 
          9.478737596257035e-05, 
          -0.0002657308046763367, 
          0.00021078390724041488, 
          -0.00018925666361331193, 
          0.0005643209543404802, 
          5.432420783349706e-05, 
          -0.00026280286633027924, 
          -0.00015367444752443151, 
          -0.00011759540055786409, 
          -4.739217420397837e-05, 
          -0.00033275925491035375, 
          -0.00015539573588379478, 
          -2.1783389118828682e-05, 
          0.00047692260874255247, 
          -0.00018002078364685645, 
          1.5635923483480145e-05, 
          -0.00043346888197138504, 
          0.0007348253078485379, 
          -0.00028194842768225725, 
          0.00044724467754270105, 
          -0.0003041512567014723, 
          4.2566919535709385e-06
        ], 
        [
          -7.597694570988352e-05, 
          -0.000518008917124373, 
          0.0006517918757989965, 
          -0.0006309521746402326, 
          0.0007867747835319747, 
          -0.00017707762221697517, 
          -0.0003651679471888533, 
          -0.00033829852937360605, 
          0.0008240130063573478, 
          -0.0007033885714041795, 
          3.266753424693344e-06, 
          -0.000397469003437488, 
          0.001270142138501913, 
          -0.0011355781520099024, 
          0.0004257705425379172, 
          -0.0012432074077108396, 
          0.0011797943501059424, 
          -4.144101773313989e-05, 
          0.00022110740860746097, 
          -0.0003485652171840754, 
          0.0002812655198079065, 
          0.00022335158289442123, 
          0.00044568888986564533, 
          -0.0013318998493657434, 
          0.0011522193596060133, 
          -0.0006685397397754709, 
          0.0012545594186708924, 
          -0.0009745948719655847, 
          -4.146900227151284e-05, 
          -0.00046139301101249456, 
          0.0006852982943295949, 
          -0.0006011649344260585, 
          -9.353772294281695e-05, 
          -0.0001901509006954372, 
          0.0009836132419912126, 
          -0.0005517487253822323, 
          -0.0004396801289963324, 
          -0.0008526587062443265, 
          0.0009065103186615775, 
          -0.0009157639389828463, 
          0.0009717774764034673, 
          -0.0011942500151414564, 
          0.0008281110363705262, 
          0.00015092622091010416, 
          0.0008307315836287709, 
          -0.000607480766120296, 
          0.00010209654094501093, 
          0.0005448729829374643, 
          0.0006760339068550962, 
          -0.0007550256172546381, 
          0.0006773668291864706, 
          -0.0003415571268798979, 
          0.0003881095411300276, 
          0.00029285788643238826, 
          0.00015996824709807288, 
          0.00031822383239899334, 
          0.0002509808665954932, 
          -0.00023726724860946547, 
          0.00031140788045691927, 
          0.00010987022004382515, 
          0.00020577265010819027, 
          0.0005500688365929767, 
          -0.00018409700933764682, 
          -0.00036306740482601344, 
          0.000623786987917251, 
          -0.00044666803138048393, 
          -0.0007675478134346785, 
          0.0004906591686075405, 
          -0.0003263040911163615, 
          -0.00020342078545032381, 
          0.00036367409359249516, 
          -0.000999816064084956, 
          0.0007509250804313599, 
          -0.0004321411078780535, 
          4.827788340577523e-05, 
          -0.0001996471162915999, 
          -0.00011279268673905829, 
          0.00030253691846958793, 
          -0.0007725540053282955, 
          0.00019702302860618852, 
          -0.00023369010046078533, 
          2.7598584545867906e-05, 
          -5.133540991938993e-05, 
          -8.584451597491672e-05, 
          0.00033443342025237557, 
          -0.0003188761588685216, 
          0.0004883545907879573, 
          -0.0007115061810960967, 
          -0.0007491826841505773, 
          0.0008872748756704481, 
          -0.00037733148764420665, 
          -0.00018445905893718057, 
          8.100593497548081e-05, 
          3.405848329485042e-05, 
          0.0004294329582624825, 
          -0.0006188984847446185, 
          -0.00018740079085393684, 
          -0.00015972263589306596, 
          0.0005219669402419838, 
          0.0004164235319141736, 
          -0.0004033020362190304, 
          0.00014916041299814064, 
          0.00022183982974335504, 
          0.00014985648104359062, 
          -0.00038360960367895164, 
          -0.00016199204570422628, 
          0.00033928258448378005, 
          0.0006697514870912044, 
          -0.0008275172075384718, 
          0.00027015718800128585, 
          2.365278272601344e-05, 
          4.2413925946675544e-05, 
          7.792883590633085e-06, 
          0.000137753383103929, 
          -0.0003677017488417783, 
          0.0006107269802456821, 
          -0.00023509654705786785, 
          2.3663853924350488e-05, 
          -0.00017996010067539793, 
          -2.7686691078994227e-05, 
          8.77939994932203e-05
        ], 
        [
          -3.735959481732036e-05, 
          -0.00016107533994449305, 
          0.0002571238171620493, 
          -0.0004974923569903076, 
          0.000560014456330529, 
          -0.0003664923338574023, 
          5.2077290190825074e-05, 
          3.963467117452872e-05, 
          -0.0002339842891055348, 
          0.00019290891744759347, 
          0.0002190302049730042, 
          -0.0001736313315030069, 
          0.0003870067334431563, 
          -0.0009247896367022428, 
          0.0007778071725446983, 
          -0.00031182372131824545, 
          0.00041847529455200396, 
          -2.016226859795558e-05, 
          3.150385084298396e-05, 
          0.00021381136454094772, 
          -0.00021310511394001357, 
          -0.00026494415386720194, 
          -0.0001637429397924883, 
          0.0003511402386013903, 
          0.0005137655320669213, 
          -0.0010167948796517767, 
          0.0005603613981725093, 
          -0.00043782856804514616, 
          -0.000232820798093243, 
          -1.128719992242263e-05, 
          0.0002346191725283892, 
          -0.000197166008351693, 
          0.00025857481476542464, 
          -0.00040707785169419905, 
          0.00011738603951278068, 
          -0.0006286405611944175, 
          0.0009692882050294039, 
          -0.0010992595812905292, 
          0.00048457895601339274, 
          0.0005719328465315296, 
          -1.542002561457346e-05, 
          -0.00032735743402938385, 
          0.00022576394229575355, 
          -0.00043629463148244494, 
          0.00042210943664884354, 
          0.0003811727239127216, 
          7.918612602068596e-05, 
          -8.00427071531541e-05, 
          0.0003991755814954018, 
          -2.399911737222185e-05, 
          -0.00032887512235506863, 
          -0.00026218987996852634, 
          0.0003537011243575289, 
          -0.00010962132691356497, 
          3.618069495231035e-05, 
          -4.671187225541533e-05, 
          -0.0007226397873958172, 
          0.0004964396818034781, 
          -0.00010833482888156456, 
          1.3747025228539981e-05, 
          0.00011769537259162204, 
          0.00013488932951013973, 
          0.00027230661128594584, 
          -0.00044018710176764903, 
          0.00013525229179906423, 
          -2.687893511753817e-05, 
          -0.0001008945183948871, 
          0.000791707057837045, 
          -0.0005336605371681078, 
          0.00015691287148042522, 
          6.021492018818779e-05, 
          -0.00038322275865142544, 
          -5.5572720195728544e-05, 
          -3.871457139657097e-05, 
          0.0003603483330600024, 
          -0.00011487583651972912, 
          -0.00010173180872185534, 
          0.0002703443168636125, 
          -0.0007301272206063521, 
          0.00031324936328310784, 
          2.7299484731580745e-05, 
          -5.436761859049258e-05, 
          0.0001328461514881113, 
          -0.00020156333741175173, 
          0.0004452293753855225, 
          -0.0008736589253515998, 
          0.0007775857502874808, 
          -6.640907550914707e-05, 
          -0.0004965425934675108, 
          0.0008840967597739905, 
          -0.0004646066699566366, 
          0.00019017892074314372, 
          -0.00036339516240179836, 
          0.0003276874812355123, 
          0.00010798062204452993, 
          -0.00032786207883436926, 
          0.0005347335965531414, 
          -0.0008165679284013934, 
          0.0004729012817778958, 
          0.00019375697089754436, 
          -0.00017402690497338855, 
          -6.827011737748239e-05, 
          3.175722754482491e-05, 
          0.00015809727527600875, 
          -0.0003582618886135428, 
          -3.682089442432016e-07, 
          4.285388426452252e-05, 
          -0.00029548011707754306, 
          0.0006004657339791295, 
          -0.0003517489965714559, 
          -0.0002654365345622461, 
          0.0002196396169111555, 
          -0.00020975918937367368, 
          1.423086494047399e-05, 
          -0.0001625030426930525, 
          0.00046233898466610263, 
          -0.00041032022957338633, 
          0.0001288264209257193, 
          -5.3105753794784744e-05, 
          -4.732331217006726e-05, 
          0.00011293417888801857
        ], 
        [
          -0.0004702185647296253, 
          0.0004356356104389773, 
          -0.00015450891203418776, 
          -0.0002091596789757384, 
          0.0004492697788866303, 
          -0.0006452112974012482, 
          0.00029351791527866853, 
          -0.00043265287070415657, 
          0.00011843151121170217, 
          4.368972110552848e-06, 
          -9.969334165070809e-05, 
          6.619157821963468e-05, 
          -0.00030682479450739746, 
          0.00011322314770734329, 
          -0.00020574021565919815, 
          0.0002657201401673829, 
          -0.00017579108613281324, 
          0.0007239058703867433, 
          -0.0002674622222543411, 
          -2.6116891948204964e-05, 
          0.0001990589083000042, 
          2.190076327578368e-06, 
          0.0004286518861274045, 
          -6.210329441533171e-05, 
          -7.635019747471301e-05, 
          3.446058083239099e-05, 
          -0.00027588414520529316, 
          0.0004436471175610357, 
          -0.0007841872545952173, 
          0.0004783529372079637, 
          8.307289657932084e-05, 
          -0.0003931969370135938, 
          4.327525191670389e-05, 
          -0.0002778008050357222, 
          -0.00011294285710432484, 
          -9.327490205186025e-05, 
          0.0001655411074620724, 
          -8.545739385337165e-05, 
          -0.00023233694324682928, 
          0.00034119740444435274, 
          -0.0005804185870739994, 
          -0.0002442567157424694, 
          0.0004899251886701177, 
          -8.208939174968016e-05, 
          0.0006703257592063393, 
          -2.511281632774276e-05, 
          0.0003754481291145595, 
          0.0005617564805749086, 
          0.00011365579223625985, 
          0.00018975284941243176, 
          -0.000956052830422409, 
          0.0009302392774458322, 
          2.352186178168152e-05, 
          -1.3583258989097663e-05, 
          -3.489527804804802e-05, 
          3.910884582792209e-05, 
          0.00025535599757894867, 
          -0.0005233481359530552, 
          0.00019194636431326447, 
          -0.0007952496894989555, 
          0.0013218532156986848, 
          0.00015332416191718537, 
          -0.00010295128231762907, 
          -0.0006596835600848033, 
          0.00034745142508801614, 
          -0.00015800272299413212, 
          -6.638578322367619e-05, 
          -0.00035066271582524864, 
          0.00021203028417105787, 
          0.0002253705444902665, 
          0.0005016301048258778, 
          -0.0007598528157205832, 
          -0.0004129043361256022, 
          0.00034955010452222986, 
          0.0002768121865996603, 
          0.0003417139182428003, 
          -0.00039785560106870107, 
          -6.544900881782173e-05, 
          2.9643571602314064e-06, 
          0.0004178921807684196, 
          -0.0012493683659389211, 
          -9.593087218935379e-05, 
          8.973080527166204e-05, 
          0.0007939163130720557, 
          -0.0007697997698321761, 
          0.0005964221285860362, 
          -0.0005025992932187092, 
          0.000497978233879257, 
          0.00010960348121341628, 
          -7.38163511981744e-05, 
          -0.0008150643504643678, 
          0.001161133771190855, 
          -0.00048275956369762577, 
          5.6286701734484515e-05, 
          -0.00035520589370281465, 
          0.00031669754337192266, 
          -0.0003979131210265665, 
          0.0001408314730745842, 
          -3.645602732511131e-05, 
          -0.0002198283419679697, 
          0.00018967307197501217, 
          0.0002651332012296916, 
          -0.0005586722843301174, 
          0.0005538034189071035, 
          -0.0001722874692801789, 
          -0.00013123453443239174, 
          0.0005686049337895241, 
          -0.0004558343731685462, 
          0.0005070438396875837, 
          -0.00024782284720980483, 
          -0.00045419902882895536, 
          0.0003458827335112465, 
          8.706178218604697e-06, 
          -7.56876300776482e-05, 
          2.893167747861596e-05, 
          0.00020078604082096052, 
          -0.0001038208275709866, 
          -0.0002721773075945683, 
          0.00041028145971277525, 
          -0.0007680322444172835, 
          0.00036660706212230873
        ], 
        [
          -0.14033740293295321, 
          0.10269737004657487, 
          -0.22318823516129485, 
          0.03578616548665418, 
          0.0362850522328968, 
          -0.2164424122482622, 
          0.03217876894517731, 
          0.07237157673501717, 
          -0.07309383041952722, 
          -0.05909583135457112, 
          -0.016266690404400392, 
          0.019325835770299025, 
          0.1412987130054662, 
          -0.02642782018618978, 
          0.10636194305673984, 
          -0.0003162025523139609, 
          0.025677105908156497, 
          -0.004647005144275515, 
          -0.024220644027852265, 
          0.04696231922946327, 
          0.0698428160440332, 
          -0.05682727404507291, 
          -0.012784807496263465, 
          -0.16956189577650316, 
          0.008726220132153673, 
          -0.023153820170392928, 
          0.011695275378612728, 
          -0.018775398679789057, 
          0.020622522186234157, 
          -0.04153982321365832, 
          -0.07074941568356236, 
          -0.07290889150782016, 
          0.03099040417874078, 
          0.017926793599252196, 
          -0.00980275238542202, 
          0.09217062643196303, 
          -0.09937294403262394, 
          -0.12639410934202966, 
          -0.025904875224315265, 
          -0.22217866510606782, 
          0.05958817369343756, 
          0.017102790418673238, 
          0.08402805904741306, 
          0.08527979028735153, 
          0.19766361791915224, 
          -0.02741644484093099, 
          -0.004183972153880609, 
          0.034159983233480684, 
          -0.007976625461837198, 
          0.1837801800788808, 
          0.2338842383485576, 
          0.027063953801084117, 
          0.15382877358483918, 
          0.09743928150778627, 
          0.2141878193770922, 
          0.21864264367675448, 
          -0.009602413232112394, 
          0.21795245551943068, 
          0.10259988215178453, 
          0.2586047506909622, 
          -0.013468204063156351, 
          0.06740113840286723, 
          -0.049647042956271654, 
          -0.0542024134203942, 
          0.045242897125532984, 
          -0.14272544590557534, 
          -0.09609769803720056, 
          -0.13732980961467248, 
          -0.08836044131871683, 
          -0.1998583313417815, 
          -0.10469939450498615, 
          -0.23168693752373432, 
          0.16674673358026168, 
          -0.22225596320668783, 
          -0.1432154064480329, 
          -0.19902717844414164, 
          -0.07815126979363517, 
          -0.07397246731489943, 
          -0.05534500558010604, 
          -0.06689858422257815, 
          -0.11929527910943663, 
          0.3136110222114403, 
          -0.02021629096856794, 
          0.08079768219893646, 
          0.010237398056013643, 
          0.11282153125983989, 
          0.09109851090667372, 
          -0.0510840919103629, 
          -0.08712630809754968, 
          0.06688187706804143, 
          0.037636778338559905, 
          0.07581687092306555, 
          -0.058459067407797986, 
          -0.13275154478873213, 
          0.060157784374165635, 
          -0.0849846080804931, 
          -0.09377206346815245, 
          -0.02737981241218503, 
          -0.05198593946891326, 
          0.06703778727696204, 
          -0.05742776186316972, 
          -0.10222042175122638, 
          -0.0528062259960792, 
          -0.09680234906510318, 
          0.15575379624293112, 
          0.010614500235549877, 
          0.03740098976134619, 
          0.050587681984715145, 
          0.013864439813614907, 
          0.07422404537141054, 
          0.016436808503101513, 
          0.001178307644162862, 
          0.11299599584628697, 
          0.04479496947888352, 
          0.0010744864004313057, 
          -0.04641025468342276, 
          0.03973092856111403, 
          0.03671782058691029, 
          -0.057556150870500845, 
          0.009227105172240166, 
          0.02489845863589045
        ], 
        [
          -0.0005134105907275838, 
          0.0008663998109088184, 
          -0.0010226715031129321, 
          0.0006185456637081337, 
          -0.000693228864937568, 
          0.0004927532925473934, 
          -0.00018849096503251015, 
          0.00011012032845208599, 
          -0.00019754455600677132, 
          -0.0006080728190216985, 
          -7.466584114652004e-05, 
          -8.965500696405429e-05, 
          -0.0003080319410267037, 
          0.0002303071183371201, 
          0.0003222559891037864, 
          -0.00040506385349873577, 
          4.789014718218304e-05, 
          0.00045551356697119466, 
          -0.00023840501279873805, 
          0.0002259165167508413, 
          0.0009747532579183295, 
          -0.0004841412447578166, 
          0.00019004675356256112, 
          0.00024231005550409793, 
          -0.0003024637793955104, 
          -0.0002053635874949635, 
          0.0008674467663421637, 
          -0.0007839626960924297, 
          -0.0003158292790684133, 
          0.0006922127136243865, 
          -0.0003810380425721781, 
          -0.0010147076845005468, 
          0.0005049254218829018, 
          -0.0001222849305597857, 
          -0.0004698880776197102, 
          0.0005242848002817, 
          -0.00017803570560899688, 
          -0.0001570714959629276, 
          -3.892772728336195e-05, 
          0.0005580622914628342, 
          -0.0012826915111123253, 
          0.00021006512484684112, 
          0.0005887316450494487, 
          -7.193114618147555e-05, 
          -0.00042791563310803834, 
          0.0004840560466529566, 
          -0.000549722145267139, 
          0.00033940657550535534, 
          -0.0001576138441645401, 
          -0.00035051263973816775, 
          -0.0009186532351830376, 
          0.0028053073726118146, 
          -0.00032614091579475724, 
          -0.00020656844176852873, 
          0.0009844726264871626, 
          0.00034258932421155774, 
          2.4491122619418847e-05, 
          0.00020747759219661276, 
          -0.0011485038635765466, 
          0.0011775112419200751, 
          6.043219393033007e-05, 
          0.001507466797888865, 
          -0.0017183608056731562, 
          0.00073304397765025, 
          -0.00033197137674202296, 
          -3.2493658839129095e-07, 
          -0.00028894679010562594, 
          -0.001082594322752082, 
          0.0006113524631616122, 
          0.0008921810284551945, 
          0.00032106607479115884, 
          -0.0004725517965741987, 
          -0.0010564722162926408, 
          0.0005026973848625924, 
          -0.00011805814535917604, 
          -9.484676176556043e-05, 
          -0.0003753423026543438, 
          -0.0004295378080884272, 
          0.001931120389418239, 
          -0.0006470906988116747, 
          -0.00032615678009972443, 
          -0.0003191915679257809, 
          -0.00014340721102505557, 
          0.0005346623666497749, 
          -0.0007096566237422289, 
          -9.993398866401615e-05, 
          0.0008286534729380218, 
          -0.0005620158984065729, 
          0.0009739338892464362, 
          -0.0014658307858952504, 
          0.001000505761165559, 
          -0.00043184179159940536, 
          0.0007659217412494135, 
          0.00013043443846232688, 
          -0.0007392693621528776, 
          0.0007488370728377455, 
          -0.000827793667911373, 
          -0.0007132837552872519, 
          0.0003853924591076515, 
          3.742278541093001e-05, 
          0.00038991320981168927, 
          -0.0008089031291294814, 
          0.0005581288835388058, 
          -0.00023386082972650337, 
          -1.7344229622215988e-05, 
          0.00044501625945993716, 
          -0.00031321740271569686, 
          0.00048698403741866695, 
          0.00026794878392163903, 
          -0.00024727226026841374, 
          -0.0001669023632140751, 
          4.7480178160400494e-05, 
          -0.00037789561961132183, 
          0.0006720725572436194, 
          -0.0006657687562797702, 
          8.36994238009238e-05, 
          0.000504343088812601, 
          -0.00020781346865430395, 
          3.1362480265340594e-05, 
          0.00032258139583405456, 
          -0.0005684393276403734
        ]
      ], 
      "sobel": [
        [
          0.11420770687186713, 
          -0.01801960747481279, 
          0.16513562888942304, 
          -0.010296073954718094, 
          0.08183833850902406, 
          0.07403352463024504, 
          -0.042967917798323575, 
          0.05757374351125028, 
          -0.08635677622555589, 
          0.09572127084826583, 
          -0.0910674123497444, 
          0.12203169684194781, 
          -0.07197901274967833, 
          0.0073605556020956, 
          0.0008822369224005564, 
          0.02726096173428972, 
          -0.12228618675757763, 
          0.05785993409335555, 
          -0.11108415149567011, 
          0.09193165758796554, 
          -0.14263447610150196, 
          0.08726121124971298, 
          -0.022431587015066718, 
          0.1825836718006468, 
          -0.07965804781961017, 
          0.07024906929528094, 
          -0.014807075577963503, 
          0.00737651305778697, 
          -0.04962294899144138, 
          -0.06471828518600983, 
          -0.04747895795792156, 
          0.06466684665450487, 
          -1.9260059699593287e-05, 
          0.0632813918397268, 
          -0.04761947218996999, 
          -0.0376806822915653, 
          0.11448092237351425, 
          -0.09221490720498489, 
          -0.15418222688538777, 
          -0.021281503267558625, 
          0.08444968140636791, 
          0.02129125994395924, 
          -0.029674505214797264, 
          -0.014399950875675567, 
          0.0647844286544381, 
          0.046576189701226726, 
          -0.008007075381709078, 
          -0.06255828488642616, 
          -0.11397138509666113, 
          0.15399548417402528, 
          0.0370664605156556, 
          -0.022498986525187486, 
          -0.03538781898898992, 
          0.0793493991707704, 
          -0.1017684647502964, 
          0.011152793756628757, 
          -0.002934941684231702, 
          -0.026294930790391614, 
          0.07433311275435196, 
          -0.057993542675743796, 
          -0.08765524572808565, 
          -0.013046400436501179, 
          -0.019542550572885713, 
          0.014457561183437325, 
          0.015945335488944647, 
          0.028162158091586235, 
          0.10481520510823143, 
          0.05606950663704042, 
          0.025445678922883075, 
          0.02950768821931522, 
          -0.06205934713553893, 
          -0.029194104649922455, 
          -0.1613220057564385, 
          -0.0512038757591821, 
          -0.1015167320914562, 
          -0.03134885220475378, 
          0.04554584384894989, 
          0.07798570484979662, 
          0.012404275209287708, 
          0.029595488192123064, 
          -0.06872382739664981, 
          0.14409558141869117, 
          -0.14144197406196435, 
          -0.006058508539869182, 
          0.03577810650736985, 
          0.016676225341214244, 
          -0.037653195175376596, 
          -0.03384106346115887, 
          0.05093531825219413, 
          -0.06766521689751427, 
          0.08604883567428062, 
          -0.02512257561912162, 
          0.042273353035736656, 
          -0.029767503051187603, 
          0.04000537397975307, 
          0.005417109342676981, 
          -0.04816771317700399, 
          0.043766821306400375, 
          0.01368473783947663, 
          0.04739458722714838, 
          -0.06036338799895037, 
          0.08127457410679617, 
          -0.03454611041367669, 
          0.013689037602300332, 
          0.00858946801332559, 
          0.01729166635405185, 
          0.013976458664286295, 
          -0.03441036127161063, 
          0.05546256552614268, 
          -0.093877330745296, 
          0.07562654005797496, 
          -0.07574632468821699, 
          0.1329012979377753, 
          -0.02969824613134973, 
          0.19457738287948917, 
          0.04850760260309468, 
          -0.017287550219747098, 
          0.040106242869668504, 
          0.13045154721844524, 
          -0.07995818399731336, 
          0.09881712602190326
        ], 
        [
          0.11743443868895465, 
          -0.05408687341825373, 
          0.08940717492144638, 
          0.09177737887768288, 
          0.05273671623417805, 
          0.03061136163707259, 
          0.08026818761880511, 
          -0.0013182496092970534, 
          0.10793474710514153, 
          0.07464376004813866, 
          0.015039758544358345, 
          0.012133955926985799, 
          0.09944689693139949, 
          0.07966431009623867, 
          -0.1067068576627395, 
          0.024510555680264966, 
          0.12303629445154479, 
          -0.06798272843897855, 
          0.08525937630358982, 
          -0.012162372266367715, 
          -0.059660268252277174, 
          0.008009682564946389, 
          0.03062184547563772, 
          0.02901275543713595, 
          -0.12865831026815905, 
          0.15084777011146464, 
          0.12125390879264429, 
          -0.019481019645031787, 
          0.01823846774675806, 
          0.018715587560588706, 
          -0.1185506494016728, 
          0.053343051783943184, 
          -0.1488429599220977, 
          0.04080656526590079, 
          0.06305740701604541, 
          0.06979789706320737, 
          -0.04205908127083563, 
          -0.00483058775531216, 
          0.004392147398193982, 
          0.005576886998261035, 
          -0.06393345254569364, 
          -0.0027791077427494764, 
          -0.1408316668162497, 
          0.06718013789028449, 
          0.10429147575977482, 
          0.026204716452882176, 
          -0.03634988882568769, 
          0.09107425203897399, 
          0.06274273742082442, 
          -0.14322582027318786, 
          -0.021078704897241302, 
          -0.08138305700348596, 
          -0.025194442089892837, 
          0.025287626891627227, 
          0.01280953764963053, 
          0.03674094637448552, 
          0.009509902406181962, 
          0.04948430267788482, 
          -0.1039739117720348, 
          -0.02796122897321122, 
          -0.13553060660553273, 
          -0.01874525606366179, 
          0.011040559304973167, 
          0.08519035051647274, 
          -0.0534902490260826, 
          0.014906296566491771, 
          0.036575438597453935, 
          0.00021999397153029518, 
          -0.03945331896898212, 
          0.04499293795005612, 
          -0.0945827890810168, 
          -0.01771644302414064, 
          0.0878892376333221, 
          0.031515297178766034, 
          -0.05513600130136186, 
          -0.0027359345075614367, 
          0.040088242282734096, 
          0.032823662873561255, 
          -0.0978471065657512, 
          0.05555513526943759, 
          -0.05708917572290589, 
          -0.11538457866512031, 
          0.12144243281451417, 
          -0.04715895946599598, 
          0.015029289955178457, 
          0.03448583929428624, 
          0.030164702208150547, 
          -0.005795852665245575, 
          0.00926858032707452, 
          -0.040640259202505045, 
          -0.0389932511238138, 
          0.001703855315052397, 
          0.0746167156156356, 
          -0.08360826674203302, 
          0.09547475590117944, 
          0.0066162852624621704, 
          0.026362886407820883, 
          -0.03318389692832749, 
          -0.04352290315049302, 
          -0.029126059998680592, 
          0.02047438917296189, 
          0.002275669070252046, 
          0.0083016203394821, 
          -0.011878544641294075, 
          0.03391876068989773, 
          -0.038619342101905645, 
          -0.018367705165668935, 
          0.03889525021277976, 
          -0.008049935431834226, 
          -0.016438737066426682, 
          -0.06664683768857134, 
          -0.00048638074160768755, 
          0.05263850527019706, 
          -0.03061405940970304, 
          -0.030826492713283107, 
          0.06873824844244542, 
          -0.02521346646011105, 
          -0.004594937908179289, 
          -0.050562365772106634, 
          0.019960037609992508, 
          -0.049410406129286995
        ], 
        [
          0.1944470214864703, 
          -0.00557056041510475, 
          -0.0024075506590596546, 
          -0.03348417336102535, 
          0.07503598947370786, 
          -0.05931113614888304, 
          -0.09630775720055154, 
          0.13131265287518556, 
          0.00978363699148982, 
          -0.0016299046449609984, 
          0.09323136965724876, 
          0.03033415949901865, 
          -0.04776089484774446, 
          0.05994834159240367, 
          -0.042647890493882935, 
          0.13333285771859346, 
          0.10153719936537885, 
          0.04019546718720159, 
          -0.022374036883475563, 
          -0.07172803233899239, 
          0.09919289996152811, 
          0.06571318977159514, 
          0.0854395259909522, 
          0.06572087491653474, 
          0.050554966634047745, 
          0.041565467347528744, 
          -0.04016319336736588, 
          -0.049103704730128664, 
          0.08569239838722736, 
          -0.0444193686095546, 
          0.08843851708794025, 
          -0.02806786290522221, 
          0.008032018804611882, 
          0.09515982251197172, 
          0.10602423107179713, 
          -0.038599913224673904, 
          -0.050175370084484174, 
          0.06796755186780735, 
          -0.0896625058375377, 
          0.030577545894832664, 
          0.0588669423082337, 
          -0.011587600758072185, 
          0.005483395817155076, 
          0.12072063634955273, 
          0.19631783058177815, 
          -0.08713737377661379, 
          0.0014049920316342693, 
